<?xml version="1.0"?>
<opencv_storage>
<stage4>
  <maxWeakCount>100</maxWeakCount>
  <stageThreshold>-8.2157373428344727e-001</stageThreshold>
  <weakClassifiers>
    <_>
      <internalNodes>
        0 -1 68389 -1.1379126459360123e-002</internalNodes>
      <leafValues>
        5.8419245481491089e-001 2.6440036296844482e-001</leafValues></_>
    <_>
      <internalNodes>
        0 -1 65063 -6.8163371179252863e-004</internalNodes>
      <leafValues>
        2.0410408079624176e-001 -9.5061294734477997e-002</leafValues></_>
    <_>
      <internalNodes>
        0 -1 67959 -1.1103656142950058e-003</internalNodes>
      <leafValues>
        1.7378841340541840e-001 -1.5865224599838257e-001</leafValues></_>
    <_>
      <internalNodes>
        0 -1 20912 -7.7150044962763786e-003</internalNodes>
      <leafValues>
        2.9402455687522888e-001 -6.1875753104686737e-002</leafValues></_>
    <_>
      <internalNodes>
        0 -1 35774 -1.0264578741043806e-003</internalNodes>
      <leafValues>
        1.3496185839176178e-001 -1.2429370731115341e-001</leafValues></_>
    <_>
      <internalNodes>
        0 -1 70991 1.7667467473074794e-003</internalNodes>
      <leafValues>
        -7.8531421720981598e-002 2.0936724543571472e-001</leafValues></_>
    <_>
      <internalNodes>
        0 -1 60795 -1.1274529621005058e-002</internalNodes>
      <leafValues>
        -5.3738588094711304e-001 2.8427302837371826e-002</leafValues></_>
    <_>
      <internalNodes>
        0 -1 65090 -1.7581933643668890e-003</internalNodes>
      <leafValues>
        1.4931346476078033e-001 -1.2444275617599487e-001</leafValues></_>
    <_>
      <internalNodes>
        0 -1 60313 5.0267465412616730e-003</internalNodes>
      <leafValues>
        -9.4369515776634216e-002 2.1643990278244019e-001</leafValues></_>
    <_>
      <internalNodes>
        0 -1 62369 4.1850651614367962e-003</internalNodes>
      <leafValues>
        3.2063264399766922e-002 -6.2326496839523315e-001</leafValues></_>
    <_>
      <internalNodes>
        0 -1 60255 -4.7416463494300842e-003</internalNodes>
      <leafValues>
        -6.6931068897247314e-001 2.6519861072301865e-002</leafValues></_>
    <_>
      <internalNodes>
        0 -1 63863 -1.0291687212884426e-003</internalNodes>
      <leafValues>
        2.1672153472900391e-001 -8.3875223994255066e-002</leafValues></_>
    <_>
      <internalNodes>
        0 -1 64801 -2.8513488359749317e-003</internalNodes>
      <leafValues>
        2.0183752477169037e-001 -8.3508171141147614e-002</leafValues></_>
    <_>
      <internalNodes>
        0 -1 10749 -4.4456863543018699e-004</internalNodes>
      <leafValues>
        1.2830018997192383e-001 -1.3605895638465881e-001</leafValues></_>
    <_>
      <internalNodes>
        0 -1 64327 -4.5303292572498322e-003</internalNodes>
      <leafValues>
        -4.4776898622512817e-001 4.2137112468481064e-002</leafValues></_>
    <_>
      <internalNodes>
        0 -1 71883 -8.3320867270231247e-003</internalNodes>
      <leafValues>
        2.4886080622673035e-001 -7.4938349425792694e-002</leafValues></_>
    <_>
      <internalNodes>
        0 -1 73609 5.9399273246526718e-002</internalNodes>
      <leafValues>
        -3.9372742176055908e-002 4.8221066594123840e-001</leafValues></_>
    <_>
      <internalNodes>
        0 -1 57396 1.0265775024890900e-002</internalNodes>
      <leafValues>
        2.8868986293673515e-002 -6.6934233903884888e-001</leafValues></_>
    <_>
      <internalNodes>
        0 -1 58377 2.8243996202945709e-003</internalNodes>
      <leafValues>
        -7.6618686318397522e-002 2.2087539732456207e-001</leafValues></_>
    <_>
      <internalNodes>
        0 -1 20337 1.8961426103487611e-003</internalNodes>
      <leafValues>
        -1.1338394135236740e-001 1.5697184205055237e-001</leafValues></_>
    <_>
      <internalNodes>
        0 -1 47641 -7.9220868647098541e-003</internalNodes>
      <leafValues>
        -5.0011807680130005e-001 3.1687799841165543e-002</leafValues></_>
    <_>
      <internalNodes>
        0 -1 54758 5.2762581617571414e-005</internalNodes>
      <leafValues>
        -1.3583637773990631e-001 1.3006192445755005e-001</leafValues></_>
    <_>
      <internalNodes>
        0 -1 48007 -5.0704972818493843e-003</internalNodes>
      <leafValues>
        2.4770952761173248e-001 -6.8664878606796265e-002</leafValues></_>
    <_>
      <internalNodes>
        0 -1 48300 4.6638497151434422e-003</internalNodes>
      <leafValues>
        -5.7032592594623566e-002 2.8098958730697632e-001</leafValues></_>
    <_>
      <internalNodes>
        0 -1 75071 -9.3905767425894737e-004</internalNodes>
      <leafValues>
        1.7928753793239594e-001 -9.8434045910835266e-002</leafValues></_>
    <_>
      <internalNodes>
        0 -1 54192 -7.7470545656979084e-003</internalNodes>
      <leafValues>
        -8.0529290437698364e-001 2.3238822817802429e-002</leafValues></_>
    <_>
      <internalNodes>
        0 -1 64573 -8.7080744560807943e-004</internalNodes>
      <leafValues>
        1.5024016797542572e-001 -1.1570268124341965e-001</leafValues></_>
    <_>
      <internalNodes>
        0 -1 75102 -1.5740180388092995e-003</internalNodes>
      <leafValues>
        2.6291334629058838e-001 -6.0898847877979279e-002</leafValues></_>
    <_>
      <internalNodes>
        0 -1 75111 -7.8371409326791763e-003</internalNodes>
      <leafValues>
        -4.6751391887664795e-001 4.0954615920782089e-002</leafValues></_>
    <_>
      <internalNodes>
        0 -1 78219 9.6225790912285447e-004</internalNodes>
      <leafValues>
        -9.0703628957271576e-002 1.8203310668468475e-001</leafValues></_>
    <_>
      <internalNodes>
        0 -1 72938 7.6697049662470818e-003</internalNodes>
      <leafValues>
        2.3152217268943787e-002 -8.7492740154266357e-001</leafValues></_>
    <_>
      <internalNodes>
        0 -1 63862 4.0728216990828514e-003</internalNodes>
      <leafValues>
        3.0616307631134987e-002 -4.2844089865684509e-001</leafValues></_>
    <_>
      <internalNodes>
        0 -1 56644 -1.4622174203395844e-003</internalNodes>
      <leafValues>
        2.1379923820495605e-001 -8.0462954938411713e-002</leafValues></_>
    <_>
      <internalNodes>
        0 -1 7829 2.1327147260308266e-002</internalNodes>
      <leafValues>
        -4.6877548098564148e-002 3.0998158454895020e-001</leafValues></_>
    <_>
      <internalNodes>
        0 -1 72962 2.2551296278834343e-003</internalNodes>
      <leafValues>
        -1.0878346115350723e-001 1.5696310997009277e-001</leafValues></_>
    <_>
      <internalNodes>
        0 -1 64620 -1.6787474974989891e-002</internalNodes>
      <leafValues>
        2.3517724871635437e-001 -7.1026362478733063e-002</leafValues></_>
    <_>
      <internalNodes>
        0 -1 1401 -3.5266882181167603e-001</internalNodes>
      <leafValues>
        3.9989742636680603e-001 -3.9741903543472290e-002</leafValues></_>
    <_>
      <internalNodes>
        0 -1 73815 6.5539419651031494e-002</internalNodes>
      <leafValues>
        -4.7020770609378815e-002 3.7547478079795837e-001</leafValues></_>
    <_>
      <internalNodes>
        0 -1 62730 -5.7221390306949615e-004</internalNodes>
      <leafValues>
        1.7865350842475891e-001 -9.8440535366535187e-002</leafValues></_>
    <_>
      <internalNodes>
        0 -1 28259 4.1381069459021091e-003</internalNodes>
      <leafValues>
        -1.0279959440231323e-001 2.1735569834709167e-001</leafValues></_>
    <_>
      <internalNodes>
        0 -1 9132 1.8385691568255424e-002</internalNodes>
      <leafValues>
        -1.0257913917303085e-001 1.6619318723678589e-001</leafValues></_>
    <_>
      <internalNodes>
        0 -1 11734 5.0410989206284285e-004</internalNodes>
      <leafValues>
        -1.0261921584606171e-001 1.7013633251190186e-001</leafValues></_>
    <_>
      <internalNodes>
        0 -1 77621 -7.4713239446282387e-003</internalNodes>
      <leafValues>
        -6.5982317924499512e-001 2.8083015233278275e-002</leafValues></_>
    <_>
      <internalNodes>
        0 -1 52047 -9.6490159630775452e-003</internalNodes>
      <leafValues>
        -8.4247845411300659e-001 1.6486415639519691e-002</leafValues></_>
    <_>
      <internalNodes>
        0 -1 38136 1.1106458259746432e-003</internalNodes>
      <leafValues>
        -8.5422188043594360e-002 2.0422179996967316e-001</leafValues></_>
    <_>
      <internalNodes>
        0 -1 36110 3.7173753976821899e-001</internalNodes>
      <leafValues>
        -2.3215878754854202e-002 7.1065902709960938e-001</leafValues></_>
    <_>
      <internalNodes>
        0 -1 25904 3.7405028939247131e-002</internalNodes>
      <leafValues>
        -5.5277891457080841e-002 2.8652140498161316e-001</leafValues></_>
    <_>
      <internalNodes>
        0 -1 27675 -1.6309042694047093e-003</internalNodes>
      <leafValues>
        1.7659407854080200e-001 -9.2292636632919312e-002</leafValues></_>
    <_>
      <internalNodes>
        0 -1 64118 1.1810090392827988e-002</internalNodes>
      <leafValues>
        6.2861025333404541e-002 -2.8216537833213806e-001</leafValues></_>
    <_>
      <internalNodes>
        0 -1 67630 4.6814323286525905e-004</internalNodes>
      <leafValues>
        -9.7321175038814545e-002 1.8094487488269806e-001</leafValues></_>
    <_>
      <internalNodes>
        0 -1 62168 -1.2120769824832678e-003</internalNodes>
      <leafValues>
        2.0196792483329773e-001 -8.3989031612873077e-002</leafValues></_>
    <_>
      <internalNodes>
        0 -1 2185 4.4752027839422226e-002</internalNodes>
      <leafValues>
        -4.0012188255786896e-002 4.1987276077270508e-001</leafValues></_>
    <_>
      <internalNodes>
        0 -1 58443 -1.2633344158530235e-003</internalNodes>
      <leafValues>
        1.9552129507064819e-001 -8.8527366518974304e-002</leafValues></_>
    <_>
      <internalNodes>
        0 -1 61934 -5.1934020593762398e-003</internalNodes>
      <leafValues>
        -5.7144582271575928e-001 3.6613516509532928e-002</leafValues></_>
    <_>
      <internalNodes>
        0 -1 34099 1.1449808254837990e-002</internalNodes>
      <leafValues>
        7.3247425258159637e-002 -2.5258234143257141e-001</leafValues></_>
    <_>
      <internalNodes>
        0 -1 20811 -2.2695599123835564e-002</internalNodes>
      <leafValues>
        -5.3660082817077637e-001 3.4572664648294449e-002</leafValues></_>
    <_>
      <internalNodes>
        0 -1 33934 -4.7428971156477928e-003</internalNodes>
      <leafValues>
        -3.9242774248123169e-001 3.5827886313199997e-002</leafValues></_>
    <_>
      <internalNodes>
        0 -1 25511 -1.8202219158411026e-002</internalNodes>
      <leafValues>
        2.9893648624420166e-001 -5.4830819368362427e-002</leafValues></_>
    <_>
      <internalNodes>
        0 -1 46496 1.4341185800731182e-002</internalNodes>
      <leafValues>
        3.9308737963438034e-002 -4.2093020677566528e-001</leafValues></_>
    <_>
      <internalNodes>
        0 -1 76725 3.2163195312023163e-002</internalNodes>
      <leafValues>
        -5.0639584660530090e-002 3.2099649310112000e-001</leafValues></_>
    <_>
      <internalNodes>
        0 -1 55553 -9.1728824190795422e-004</internalNodes>
      <leafValues>
        1.4646157622337341e-001 -1.1327266693115234e-001</leafValues></_>
    <_>
      <internalNodes>
        0 -1 51259 -4.7604282735846937e-004</internalNodes>
      <leafValues>
        1.5241385996341705e-001 -1.0678698867559433e-001</leafValues></_>
    <_>
      <internalNodes>
        0 -1 47691 -1.3498844346031547e-003</internalNodes>
      <leafValues>
        1.7243891954421997e-001 -9.1960772871971130e-002</leafValues></_>
    <_>
      <internalNodes>
        0 -1 67042 5.6168409064412117e-003</internalNodes>
      <leafValues>
        -6.3193619251251221e-002 2.4610011279582977e-001</leafValues></_>
    <_>
      <internalNodes>
        0 -1 31365 7.3469653725624084e-002</internalNodes>
      <leafValues>
        4.2969357222318649e-002 -3.6637350916862488e-001</leafValues></_>
    <_>
      <internalNodes>
        0 -1 54084 3.8575962185859680e-002</internalNodes>
      <leafValues>
        -3.1155224889516830e-002 5.2967971563339233e-001</leafValues></_>
    <_>
      <internalNodes>
        0 -1 63989 1.4803977683186531e-002</internalNodes>
      <leafValues>
        -1.0153174400329590e-001 1.6764092445373535e-001</leafValues></_>
    <_>
      <internalNodes>
        0 -1 72871 2.6510126888751984e-002</internalNodes>
      <leafValues>
        -4.3495140969753265e-002 3.8069751858711243e-001</leafValues></_>
    <_>
      <internalNodes>
        0 -1 40435 -1.0753362439572811e-003</internalNodes>
      <leafValues>
        1.5972636640071869e-001 -9.4591997563838959e-002</leafValues></_>
    <_>
      <internalNodes>
        0 -1 73687 1.0818387381732464e-003</internalNodes>
      <leafValues>
        8.0799169838428497e-002 -1.9788376986980438e-001</leafValues></_>
    <_>
      <internalNodes>
        0 -1 30368 5.3346537053585052e-002</internalNodes>
      <leafValues>
        -2.4964019656181335e-002 6.4576905965805054e-001</leafValues></_>
    <_>
      <internalNodes>
        0 -1 19696 -4.3163862079381943e-002</internalNodes>
      <leafValues>
        2.9286634922027588e-001 -5.4521325975656509e-002</leafValues></_>
    <_>
      <internalNodes>
        0 -1 18787 2.1603079512715340e-003</internalNodes>
      <leafValues>
        5.8589398860931396e-002 -2.8714290261268616e-001</leafValues></_>
    <_>
      <internalNodes>
        0 -1 61508 -1.7149532213807106e-002</internalNodes>
      <leafValues>
        -4.4766190648078918e-001 3.5306554287672043e-002</leafValues></_>
    <_>
      <internalNodes>
        0 -1 37797 -2.7688438422046602e-004</internalNodes>
      <leafValues>
        1.4513701200485229e-001 -1.1915404349565506e-001</leafValues></_>
    <_>
      <internalNodes>
        0 -1 53213 9.9707832559943199e-003</internalNodes>
      <leafValues>
        3.2003518193960190e-002 -5.5696612596511841e-001</leafValues></_>
    <_>
      <internalNodes>
        0 -1 31962 -7.3694193270057440e-004</internalNodes>
      <leafValues>
        1.7697761952877045e-001 -9.6694424748420715e-002</leafValues></_>
    <_>
      <internalNodes>
        0 -1 7545 1.6682927962392569e-003</internalNodes>
      <leafValues>
        5.6978125125169754e-002 -2.8275978565216064e-001</leafValues></_>
    <_>
      <internalNodes>
        0 -1 43542 -9.5330108888447285e-004</internalNodes>
      <leafValues>
        1.7447309195995331e-001 -9.7496949136257172e-002</leafValues></_>
    <_>
      <internalNodes>
        0 -1 53206 -3.1210454180836678e-003</internalNodes>
      <leafValues>
        -4.0931245684623718e-001 4.3058808892965317e-002</leafValues></_>
    <_>
      <internalNodes>
        0 -1 67499 -6.5380814485251904e-003</internalNodes>
      <leafValues>
        2.3191511631011963e-001 -7.4713155627250671e-002</leafValues></_>
    <_>
      <internalNodes>
        0 -1 74878 3.0534096062183380e-002</internalNodes>
      <leafValues>
        -3.1463392078876495e-002 5.3976744413375854e-001</leafValues></_>
    <_>
      <internalNodes>
        0 -1 74996 -5.4312543943524361e-003</internalNodes>
      <leafValues>
        2.1713048219680786e-001 -7.2964601218700409e-002</leafValues></_>
    <_>
      <internalNodes>
        0 -1 34371 1.4913815259933472e-001</internalNodes>
      <leafValues>
        -2.3756867274641991e-002 6.0180604457855225e-001</leafValues></_>
    <_>
      <internalNodes>
        0 -1 629 -1.9770441576838493e-003</internalNodes>
      <leafValues>
        1.5806581079959869e-001 -9.5279417932033539e-002</leafValues></_>
    <_>
      <internalNodes>
        0 -1 68369 -6.5766721963882446e-003</internalNodes>
      <leafValues>
        2.4034054577350616e-001 -6.4404249191284180e-002</leafValues></_>
    <_>
      <internalNodes>
        0 -1 49391 9.5417741686105728e-003</internalNodes>
      <leafValues>
        4.4127307832241058e-002 -4.3483841419219971e-001</leafValues></_>
    <_>
      <internalNodes>
        0 -1 38459 -1.2548677623271942e-002</internalNodes>
      <leafValues>
        4.3680584430694580e-001 -3.5434342920780182e-002</leafValues></_>
    <_>
      <internalNodes>
        0 -1 12960 3.7331152707338333e-003</internalNodes>
      <leafValues>
        3.9720159024000168e-002 -4.0368163585662842e-001</leafValues></_>
    <_>
      <internalNodes>
        0 -1 53668 1.8525659106671810e-003</internalNodes>
      <leafValues>
        -5.6036747992038727e-002 2.8919965028762817e-001</leafValues></_>
    <_>
      <internalNodes>
        0 -1 57659 -1.7988432664424181e-003</internalNodes>
      <leafValues>
        1.7739053070545197e-001 -9.4664558768272400e-002</leafValues></_>
    <_>
      <internalNodes>
        0 -1 27926 1.4323281357064843e-003</internalNodes>
      <leafValues>
        -8.6325995624065399e-002 2.0103082060813904e-001</leafValues></_>
    <_>
      <internalNodes>
        0 -1 67992 -1.1493610218167305e-002</internalNodes>
      <leafValues>
        -6.0025715827941895e-001 2.7680860832333565e-002</leafValues></_>
    <_>
      <internalNodes>
        0 -1 49735 -5.4905796423554420e-003</internalNodes>
      <leafValues>
        2.1509113907814026e-001 -8.2643732428550720e-002</leafValues></_>
    <_>
      <internalNodes>
        0 -1 78447 -5.1916087977588177e-003</internalNodes>
      <leafValues>
        -4.7606894373893738e-001 3.7325564771890640e-002</leafValues></_>
    <_>
      <internalNodes>
        0 -1 66042 5.1016928628087044e-003</internalNodes>
      <leafValues>
        6.6425994038581848e-002 -2.5760421156883240e-001</leafValues></_>
    <_>
      <internalNodes>
        0 -1 23557 2.0082218106836081e-003</internalNodes>
      <leafValues>
        -8.3569645881652832e-002 2.0813862979412079e-001</leafValues></_>
    <_>
      <internalNodes>
        0 -1 14614 5.6794770061969757e-003</internalNodes>
      <leafValues>
        4.6379912644624710e-002 -3.7258547544479370e-001</leafValues></_>
    <_>
      <internalNodes>
        0 -1 39634 -1.4878653455525637e-003</internalNodes>
      <leafValues>
        1.6871522367000580e-001 -9.4624690711498260e-002</leafValues></_>
    <_>
      <internalNodes>
        0 -1 39521 3.3134133554995060e-003</internalNodes>
      <leafValues>
        -9.6393704414367676e-002 1.9998332858085632e-001</leafValues></_></weakClassifiers></stage4>
</opencv_storage>
